digraph Tree {
node [shape=box] ;
0 [label="raca_cor_99 <= 0.5\ngini = 0.495\nsamples = 28234\nvalue = [15563, 12671]"] ;
1 [label="tempo_autorizar <= 91.5\ngini = 0.498\nsamples = 23816\nvalue = [12694, 11122]"] ;
0 -> 1 [labeldistance=2.5, labelangle=45, headlabel="True"] ;
2 [label="tempo_autorizar <= -0.5\ngini = 0.496\nsamples = 22698\nvalue = [12314, 10384]"] ;
1 -> 2 ;
3 [label="gini = 0.448\nsamples = 893\nvalue = [302, 591]"] ;
2 -> 3 ;
4 [label="gini = 0.495\nsamples = 21805\nvalue = [12012, 9793]"] ;
2 -> 4 ;
5 [label="num_idade <= 43.5\ngini = 0.449\nsamples = 1118\nvalue = [380, 738]"] ;
1 -> 5 ;
6 [label="gini = 0.482\nsamples = 446\nvalue = [181, 265]"] ;
5 -> 6 ;
7 [label="gini = 0.417\nsamples = 672\nvalue = [199, 473]"] ;
5 -> 7 ;
8 [label="ESTIMATED_POP <= 900047.0\ngini = 0.455\nsamples = 4418\nvalue = [2869, 1549]"] ;
0 -> 8 [labeldistance=2.5, labelangle=-45, headlabel="False"] ;
9 [label="qtd_estab_uf <= 41.5\ngini = 0.477\nsamples = 3181\nvalue = [1935, 1246]"] ;
8 -> 9 ;
10 [label="gini = 0.44\nsamples = 1597\nvalue = [1074, 523]"] ;
9 -> 10 ;
11 [label="gini = 0.496\nsamples = 1584\nvalue = [861, 723]"] ;
9 -> 11 ;
12 [label="rf_raios_x <= 694.0\ngini = 0.37\nsamples = 1237\nvalue = [934, 303]"] ;
8 -> 12 ;
13 [label="gini = 0.337\nsamples = 1121\nvalue = [881, 240]"] ;
12 -> 13 ;
14 [label="gini = 0.496\nsamples = 116\nvalue = [53, 63]"] ;
12 -> 14 ;
}